digraph Tree {
node [shape=box] ;
0 [label="X[897] <= 0.5\ngini = 0.469\nsamples = 712\nvalue = [444, 268]"] ;
1 [label="X[1] <= 1.5\ngini = 0.303\nsamples = 467\nvalue = [380, 87]"] ;
0 -> 1 [labeldistance=2.5, labelangle=45, headlabel="True"] ;
2 [label="X[0] <= 187.0\ngini = 0.451\nsamples = 93\nvalue = [61, 32]"] ;
1 -> 2 ;
3 [label="X[993] <= 0.5\ngini = 0.124\nsamples = 15\nvalue = [14, 1]"] ;
2 -> 3 ;
4 [label="gini = 0.0\nsamples = 14\nvalue = [14, 0]"] ;
3 -> 4 ;
5 [label="gini = 0.0\nsamples = 1\nvalue = [0, 1]"] ;
3 -> 5 ;
6 [label="X[5] <= 26.144\ngini = 0.479\nsamples = 78\nvalue = [47, 31]"] ;
2 -> 6 ;
7 [label="gini = 0.0\nsamples = 7\nvalue = [7, 0]"] ;
6 -> 7 ;
8 [label="X[0] <= 586.0\ngini = 0.492\nsamples = 71\nvalue = [40, 31]"] ;
6 -> 8 ;
9 [label="X[2] <= 53.5\ngini = 0.444\nsamples = 42\nvalue = [28, 14]"] ;
8 -> 9 ;
10 [label="X[4] <= 1.5\ngini = 0.48\nsamples = 35\nvalue = [21, 14]"] ;
9 -> 10 ;
11 [label="X[0] <= 235.5\ngini = 0.444\nsamples = 30\nvalue = [20, 10]"] ;
10 -> 11 ;
12 [label="gini = 0.0\nsamples = 2\nvalue = [0, 2]"] ;
11 -> 12 ;
13 [label="X[0] <= 495.5\ngini = 0.408\nsamples = 28\nvalue = [20, 8]"] ;
11 -> 13 ;
14 [label="X[0] <= 361.5\ngini = 0.463\nsamples = 22\nvalue = [14, 8]"] ;
13 -> 14 ;
15 [label="X[720] <= 0.5\ngini = 0.278\nsamples = 12\nvalue = [10, 2]"] ;
14 -> 15 ;
16 [label="X[1682] <= 0.5\ngini = 0.165\nsamples = 11\nvalue = [10, 1]"] ;
15 -> 16 ;
17 [label="gini = 0.0\nsamples = 10\nvalue = [10, 0]"] ;
16 -> 17 ;
18 [label="gini = 0.0\nsamples = 1\nvalue = [0, 1]"] ;
16 -> 18 ;
19 [label="gini = 0.0\nsamples = 1\nvalue = [0, 1]"] ;
15 -> 19 ;
20 [label="X[2] <= 23.5\ngini = 0.48\nsamples = 10\nvalue = [4, 6]"] ;
14 -> 20 ;
21 [label="gini = 0.0\nsamples = 2\nvalue = [2, 0]"] ;
20 -> 21 ;
22 [label="X[1708] <= 0.5\ngini = 0.375\nsamples = 8\nvalue = [2, 6]"] ;
20 -> 22 ;
23 [label="X[263] <= 0.5\ngini = 0.245\nsamples = 7\nvalue = [1, 6]"] ;
22 -> 23 ;
24 [label="gini = 0.0\nsamples = 6\nvalue = [0, 6]"] ;
23 -> 24 ;
25 [label="gini = 0.0\nsamples = 1\nvalue = [1, 0]"] ;
23 -> 25 ;
26 [label="gini = 0.0\nsamples = 1\nvalue = [1, 0]"] ;
22 -> 26 ;
27 [label="gini = 0.0\nsamples = 6\nvalue = [6, 0]"] ;
13 -> 27 ;
28 [label="X[926] <= 0.5\ngini = 0.32\nsamples = 5\nvalue = [1, 4]"] ;
10 -> 28 ;
29 [label="gini = 0.0\nsamples = 4\nvalue = [0, 4]"] ;
28 -> 29 ;
30 [label="gini = 0.0\nsamples = 1\nvalue = [1, 0]"] ;
28 -> 30 ;
31 [label="gini = 0.0\nsamples = 7\nvalue = [7, 0]"] ;
9 -> 31 ;
32 [label="X[0] <= 741.5\ngini = 0.485\nsamples = 29\nvalue = [12, 17]"] ;
8 -> 32 ;
33 [label="X[2] <= 13.5\ngini = 0.375\nsamples = 20\nvalue = [5, 15]"] ;
32 -> 33 ;
34 [label="X[353] <= 0.5\ngini = 0.444\nsamples = 3\nvalue = [2, 1]"] ;
33 -> 34 ;
35 [label="gini = 0.0\nsamples = 2\nvalue = [2, 0]"] ;
34 -> 35 ;
36 [label="gini = 0.0\nsamples = 1\nvalue = [0, 1]"] ;
34 -> 36 ;
37 [label="X[947] <= 0.5\ngini = 0.291\nsamples = 17\nvalue = [3, 14]"] ;
33 -> 37 ;
38 [label="X[1618] <= 0.5\ngini = 0.219\nsamples = 16\nvalue = [2, 14]"] ;
37 -> 38 ;
39 [label="X[1655] <= 0.5\ngini = 0.124\nsamples = 15\nvalue = [1, 14]"] ;
38 -> 39 ;
40 [label="gini = 0.0\nsamples = 14\nvalue = [0, 14]"] ;
39 -> 40 ;
41 [label="gini = 0.0\nsamples = 1\nvalue = [1, 0]"] ;
39 -> 41 ;
42 [label="gini = 0.0\nsamples = 1\nvalue = [1, 0]"] ;
38 -> 42 ;
43 [label="gini = 0.0\nsamples = 1\nvalue = [1, 0]"] ;
37 -> 43 ;
44 [label="X[5] <= 29.85\ngini = 0.346\nsamples = 9\nvalue = [7, 2]"] ;
32 -> 44 ;
45 [label="gini = 0.0\nsamples = 2\nvalue = [0, 2]"] ;
44 -> 45 ;
46 [label="gini = 0.0\nsamples = 7\nvalue = [7, 0]"] ;
44 -> 46 ;
47 [label="X[979] <= 0.5\ngini = 0.251\nsamples = 374\nvalue = [319, 55]"] ;
1 -> 47 ;
48 [label="X[1136] <= 0.5\ngini = 0.239\nsamples = 368\nvalue = [317, 51]"] ;
47 -> 48 ;
49 [label="X[1461] <= 0.5\ngini = 0.232\nsamples = 366\nvalue = [317, 49]"] ;
48 -> 49 ;
50 [label="X[1012] <= 0.5\ngini = 0.225\nsamples = 364\nvalue = [317, 47]"] ;
49 -> 50 ;
51 [label="X[398] <= 0.5\ngini = 0.218\nsamples = 361\nvalue = [316, 45]"] ;
50 -> 51 ;
52 [label="X[669] <= 0.5\ngini = 0.215\nsamples = 360\nvalue = [316, 44]"] ;
51 -> 52 ;
53 [label="X[1300] <= 0.5\ngini = 0.211\nsamples = 359\nvalue = [316, 43]"] ;
52 -> 53 ;
54 [label="X[1304] <= 0.5\ngini = 0.207\nsamples = 358\nvalue = [316, 42]"] ;
53 -> 54 ;
55 [label="X[1101] <= 0.5\ngini = 0.203\nsamples = 357\nvalue = [316, 41]"] ;
54 -> 55 ;
56 [label="X[327] <= 0.5\ngini = 0.199\nsamples = 356\nvalue = [316, 40]"] ;
55 -> 56 ;
57 [label="X[798] <= 0.5\ngini = 0.196\nsamples = 355\nvalue = [316, 39]"] ;
56 -> 57 ;
58 [label="X[1314] <= 0.5\ngini = 0.192\nsamples = 354\nvalue = [316, 38]"] ;
57 -> 58 ;
59 [label="X[1530] <= 0.5\ngini = 0.188\nsamples = 353\nvalue = [316, 37]"] ;
58 -> 59 ;
60 [label="X[509] <= 0.5\ngini = 0.184\nsamples = 352\nvalue = [316, 36]"] ;
59 -> 60 ;
61 [label="X[1523] <= 0.5\ngini = 0.18\nsamples = 351\nvalue = [316, 35]"] ;
60 -> 61 ;
62 [label="X[1378] <= 0.5\ngini = 0.175\nsamples = 350\nvalue = [316, 34]"] ;
61 -> 62 ;
63 [label="X[1341] <= 0.5\ngini = 0.171\nsamples = 349\nvalue = [316, 33]"] ;
62 -> 63 ;
64 [label="X[490] <= 0.5\ngini = 0.167\nsamples = 348\nvalue = [316, 32]"] ;
63 -> 64 ;
65 [label="X[797] <= 0.5\ngini = 0.163\nsamples = 347\nvalue = [316, 31]"] ;
64 -> 65 ;
66 [label="X[1571] <= 0.5\ngini = 0.158\nsamples = 346\nvalue = [316, 30]"] ;
65 -> 66 ;
67 [label="X[1440] <= 0.5\ngini = 0.154\nsamples = 345\nvalue = [316, 29]"] ;
66 -> 67 ;
68 [label="X[1340] <= 0.5\ngini = 0.15\nsamples = 344\nvalue = [316, 28]"] ;
67 -> 68 ;
69 [label="X[86] <= 0.5\ngini = 0.145\nsamples = 343\nvalue = [316, 27]"] ;
68 -> 69 ;
70 [label="X[1237] <= 0.5\ngini = 0.14\nsamples = 342\nvalue = [316, 26]"] ;
69 -> 70 ;
71 [label="X[743] <= 0.5\ngini = 0.136\nsamples = 341\nvalue = [316, 25]"] ;
70 -> 71 ;
72 [label="X[873] <= 0.5\ngini = 0.131\nsamples = 340\nvalue = [316, 24]"] ;
71 -> 72 ;
73 [label="X[555] <= 0.5\ngini = 0.126\nsamples = 339\nvalue = [316, 23]"] ;
72 -> 73 ;
74 [label="X[1085] <= 0.5\ngini = 0.122\nsamples = 338\nvalue = [316, 22]"] ;
73 -> 74 ;
75 [label="X[79] <= 0.5\ngini = 0.117\nsamples = 337\nvalue = [316, 21]"] ;
74 -> 75 ;
76 [label="X[823] <= 0.5\ngini = 0.112\nsamples = 336\nvalue = [316, 20]"] ;
75 -> 76 ;
77 [label="X[413] <= 0.5\ngini = 0.107\nsamples = 335\nvalue = [316, 19]"] ;
76 -> 77 ;
78 [label="X[1070] <= 0.5\ngini = 0.102\nsamples = 334\nvalue = [316, 18]"] ;
77 -> 78 ;
79 [label="X[794] <= 0.5\ngini = 0.097\nsamples = 333\nvalue = [316, 17]"] ;
78 -> 79 ;
80 [label="X[425] <= 0.5\ngini = 0.092\nsamples = 332\nvalue = [316, 16]"] ;
79 -> 80 ;
81 [label="X[1073] <= 0.5\ngini = 0.087\nsamples = 331\nvalue = [316, 15]"] ;
80 -> 81 ;
82 [label="X[1398] <= 0.5\ngini = 0.081\nsamples = 330\nvalue = [316, 14]"] ;
81 -> 82 ;
83 [label="X[1013] <= 0.5\ngini = 0.076\nsamples = 329\nvalue = [316, 13]"] ;
82 -> 83 ;
84 [label="X[1432] <= 0.5\ngini = 0.07\nsamples = 328\nvalue = [316, 12]"] ;
83 -> 84 ;
85 [label="X[598] <= 0.5\ngini = 0.065\nsamples = 327\nvalue = [316, 11]"] ;
84 -> 85 ;
86 [label="X[209] <= 0.5\ngini = 0.059\nsamples = 326\nvalue = [316, 10]"] ;
85 -> 86 ;
87 [label="X[214] <= 0.5\ngini = 0.054\nsamples = 325\nvalue = [316, 9]"] ;
86 -> 87 ;
88 [label="X[15] <= 0.5\ngini = 0.048\nsamples = 324\nvalue = [316, 8]"] ;
87 -> 88 ;
89 [label="X[1086] <= 0.5\ngini = 0.042\nsamples = 323\nvalue = [316, 7]"] ;
88 -> 89 ;
90 [label="X[48] <= 0.5\ngini = 0.037\nsamples = 322\nvalue = [316, 6]"] ;
89 -> 90 ;
91 [label="X[68] <= 0.5\ngini = 0.031\nsamples = 321\nvalue = [316, 5]"] ;
90 -> 91 ;
92 [label="X[1168] <= 0.5\ngini = 0.025\nsamples = 320\nvalue = [316, 4]"] ;
91 -> 92 ;
93 [label="X[1153] <= 0.5\ngini = 0.019\nsamples = 319\nvalue = [316, 3]"] ;
92 -> 93 ;
94 [label="X[1033] <= 0.5\ngini = 0.012\nsamples = 318\nvalue = [316, 2]"] ;
93 -> 94 ;
95 [label="X[1233] <= 0.5\ngini = 0.006\nsamples = 317\nvalue = [316, 1]"] ;
94 -> 95 ;
96 [label="gini = 0.0\nsamples = 316\nvalue = [316, 0]"] ;
95 -> 96 ;
97 [label="gini = 0.0\nsamples = 1\nvalue = [0, 1]"] ;
95 -> 97 ;
98 [label="gini = 0.0\nsamples = 1\nvalue = [0, 1]"] ;
94 -> 98 ;
99 [label="gini = 0.0\nsamples = 1\nvalue = [0, 1]"] ;
93 -> 99 ;
100 [label="gini = 0.0\nsamples = 1\nvalue = [0, 1]"] ;
92 -> 100 ;
101 [label="gini = 0.0\nsamples = 1\nvalue = [0, 1]"] ;
91 -> 101 ;
102 [label="gini = 0.0\nsamples = 1\nvalue = [0, 1]"] ;
90 -> 102 ;
103 [label="gini = 0.0\nsamples = 1\nvalue = [0, 1]"] ;
89 -> 103 ;
104 [label="gini = 0.0\nsamples = 1\nvalue = [0, 1]"] ;
88 -> 104 ;
105 [label="gini = 0.0\nsamples = 1\nvalue = [0, 1]"] ;
87 -> 105 ;
106 [label="gini = 0.0\nsamples = 1\nvalue = [0, 1]"] ;
86 -> 106 ;
107 [label="gini = 0.0\nsamples = 1\nvalue = [0, 1]"] ;
85 -> 107 ;
108 [label="gini = 0.0\nsamples = 1\nvalue = [0, 1]"] ;
84 -> 108 ;
109 [label="gini = 0.0\nsamples = 1\nvalue = [0, 1]"] ;
83 -> 109 ;
110 [label="gini = 0.0\nsamples = 1\nvalue = [0, 1]"] ;
82 -> 110 ;
111 [label="gini = 0.0\nsamples = 1\nvalue = [0, 1]"] ;
81 -> 111 ;
112 [label="gini = 0.0\nsamples = 1\nvalue = [0, 1]"] ;
80 -> 112 ;
113 [label="gini = 0.0\nsamples = 1\nvalue = [0, 1]"] ;
79 -> 113 ;
114 [label="gini = 0.0\nsamples = 1\nvalue = [0, 1]"] ;
78 -> 114 ;
115 [label="gini = 0.0\nsamples = 1\nvalue = [0, 1]"] ;
77 -> 115 ;
116 [label="gini = 0.0\nsamples = 1\nvalue = [0, 1]"] ;
76 -> 116 ;
117 [label="gini = 0.0\nsamples = 1\nvalue = [0, 1]"] ;
75 -> 117 ;
118 [label="gini = 0.0\nsamples = 1\nvalue = [0, 1]"] ;
74 -> 118 ;
119 [label="gini = 0.0\nsamples = 1\nvalue = [0, 1]"] ;
73 -> 119 ;
120 [label="gini = 0.0\nsamples = 1\nvalue = [0, 1]"] ;
72 -> 120 ;
121 [label="gini = 0.0\nsamples = 1\nvalue = [0, 1]"] ;
71 -> 121 ;
122 [label="gini = 0.0\nsamples = 1\nvalue = [0, 1]"] ;
70 -> 122 ;
123 [label="gini = 0.0\nsamples = 1\nvalue = [0, 1]"] ;
69 -> 123 ;
124 [label="gini = 0.0\nsamples = 1\nvalue = [0, 1]"] ;
68 -> 124 ;
125 [label="gini = 0.0\nsamples = 1\nvalue = [0, 1]"] ;
67 -> 125 ;
126 [label="gini = 0.0\nsamples = 1\nvalue = [0, 1]"] ;
66 -> 126 ;
127 [label="gini = 0.0\nsamples = 1\nvalue = [0, 1]"] ;
65 -> 127 ;
128 [label="gini = 0.0\nsamples = 1\nvalue = [0, 1]"] ;
64 -> 128 ;
129 [label="gini = 0.0\nsamples = 1\nvalue = [0, 1]"] ;
63 -> 129 ;
130 [label="gini = 0.0\nsamples = 1\nvalue = [0, 1]"] ;
62 -> 130 ;
131 [label="gini = 0.0\nsamples = 1\nvalue = [0, 1]"] ;
61 -> 131 ;
132 [label="gini = 0.0\nsamples = 1\nvalue = [0, 1]"] ;
60 -> 132 ;
133 [label="gini = 0.0\nsamples = 1\nvalue = [0, 1]"] ;
59 -> 133 ;
134 [label="gini = 0.0\nsamples = 1\nvalue = [0, 1]"] ;
58 -> 134 ;
135 [label="gini = 0.0\nsamples = 1\nvalue = [0, 1]"] ;
57 -> 135 ;
136 [label="gini = 0.0\nsamples = 1\nvalue = [0, 1]"] ;
56 -> 136 ;
137 [label="gini = 0.0\nsamples = 1\nvalue = [0, 1]"] ;
55 -> 137 ;
138 [label="gini = 0.0\nsamples = 1\nvalue = [0, 1]"] ;
54 -> 138 ;
139 [label="gini = 0.0\nsamples = 1\nvalue = [0, 1]"] ;
53 -> 139 ;
140 [label="gini = 0.0\nsamples = 1\nvalue = [0, 1]"] ;
52 -> 140 ;
141 [label="gini = 0.0\nsamples = 1\nvalue = [0, 1]"] ;
51 -> 141 ;
142 [label="X[0] <= 171.5\ngini = 0.444\nsamples = 3\nvalue = [1, 2]"] ;
50 -> 142 ;
143 [label="gini = 0.0\nsamples = 1\nvalue = [1, 0]"] ;
142 -> 143 ;
144 [label="gini = 0.0\nsamples = 2\nvalue = [0, 2]"] ;
142 -> 144 ;
145 [label="gini = 0.0\nsamples = 2\nvalue = [0, 2]"] ;
49 -> 145 ;
146 [label="gini = 0.0\nsamples = 2\nvalue = [0, 2]"] ;
48 -> 146 ;
147 [label="X[459] <= 0.5\ngini = 0.444\nsamples = 6\nvalue = [2, 4]"] ;
47 -> 147 ;
148 [label="X[492] <= 0.5\ngini = 0.32\nsamples = 5\nvalue = [1, 4]"] ;
147 -> 148 ;
149 [label="gini = 0.0\nsamples = 4\nvalue = [0, 4]"] ;
148 -> 149 ;
150 [label="gini = 0.0\nsamples = 1\nvalue = [1, 0]"] ;
148 -> 150 ;
151 [label="gini = 0.0\nsamples = 1\nvalue = [1, 0]"] ;
147 -> 151 ;
152 [label="X[1] <= 2.5\ngini = 0.386\nsamples = 245\nvalue = [64, 181]"] ;
0 -> 152 [labeldistance=2.5, labelangle=-45, headlabel="False"] ;
153 [label="X[1642] <= 0.5\ngini = 0.074\nsamples = 130\nvalue = [5, 125]"] ;
152 -> 153 ;
154 [label="X[1492] <= 0.5\ngini = 0.046\nsamples = 128\nvalue = [3, 125]"] ;
153 -> 154 ;
155 [label="X[887] <= 0.5\ngini = 0.031\nsamples = 127\nvalue = [2, 125]"] ;
154 -> 155 ;
156 [label="X[952] <= 0.5\ngini = 0.016\nsamples = 126\nvalue = [1, 125]"] ;
155 -> 156 ;
157 [label="gini = 0.0\nsamples = 125\nvalue = [0, 125]"] ;
156 -> 157 ;
158 [label="gini = 0.0\nsamples = 1\nvalue = [1, 0]"] ;
156 -> 158 ;
159 [label="gini = 0.0\nsamples = 1\nvalue = [1, 0]"] ;
155 -> 159 ;
160 [label="gini = 0.0\nsamples = 1\nvalue = [1, 0]"] ;
154 -> 160 ;
161 [label="gini = 0.0\nsamples = 2\nvalue = [2, 0]"] ;
153 -> 161 ;
162 [label="X[5] <= 23.35\ngini = 0.5\nsamples = 115\nvalue = [59, 56]"] ;
152 -> 162 ;
163 [label="X[1729] <= 0.5\ngini = 0.486\nsamples = 94\nvalue = [39, 55]"] ;
162 -> 163 ;
164 [label="X[1092] <= 0.5\ngini = 0.405\nsamples = 39\nvalue = [11, 28]"] ;
163 -> 164 ;
165 [label="X[2] <= 16.5\ngini = 0.368\nsamples = 37\nvalue = [9, 28]"] ;
164 -> 165 ;
166 [label="X[106] <= 0.5\ngini = 0.278\nsamples = 30\nvalue = [5, 25]"] ;
165 -> 166 ;
167 [label="X[105] <= 0.5\ngini = 0.238\nsamples = 29\nvalue = [4, 25]"] ;
166 -> 167 ;
168 [label="X[1175] <= 0.5\ngini = 0.191\nsamples = 28\nvalue = [3, 25]"] ;
167 -> 168 ;
169 [label="X[362] <= 0.5\ngini = 0.137\nsamples = 27\nvalue = [2, 25]"] ;
168 -> 169 ;
170 [label="X[1180] <= 0.5\ngini = 0.074\nsamples = 26\nvalue = [1, 25]"] ;
169 -> 170 ;
171 [label="gini = 0.0\nsamples = 25\nvalue = [0, 25]"] ;
170 -> 171 ;
172 [label="gini = 0.0\nsamples = 1\nvalue = [1, 0]"] ;
170 -> 172 ;
173 [label="gini = 0.0\nsamples = 1\nvalue = [1, 0]"] ;
169 -> 173 ;
174 [label="gini = 0.0\nsamples = 1\nvalue = [1, 0]"] ;
168 -> 174 ;
175 [label="gini = 0.0\nsamples = 1\nvalue = [1, 0]"] ;
167 -> 175 ;
176 [label="gini = 0.0\nsamples = 1\nvalue = [1, 0]"] ;
166 -> 176 ;
177 [label="X[2] <= 21.5\ngini = 0.49\nsamples = 7\nvalue = [4, 3]"] ;
165 -> 177 ;
178 [label="gini = 0.0\nsamples = 4\nvalue = [4, 0]"] ;
177 -> 178 ;
179 [label="gini = 0.0\nsamples = 3\nvalue = [0, 3]"] ;
177 -> 179 ;
180 [label="gini = 0.0\nsamples = 2\nvalue = [2, 0]"] ;
164 -> 180 ;
181 [label="X[5] <= 7.7\ngini = 0.5\nsamples = 55\nvalue = [28, 27]"] ;
163 -> 181 ;
182 [label="gini = 0.0\nsamples = 4\nvalue = [0, 4]"] ;
181 -> 182 ;
183 [label="X[5] <= 10.825\ngini = 0.495\nsamples = 51\nvalue = [28, 23]"] ;
181 -> 183 ;
184 [label="X[2] <= 54.0\ngini = 0.428\nsamples = 29\nvalue = [20, 9]"] ;
183 -> 184 ;
185 [label="X[1383] <= 0.5\ngini = 0.408\nsamples = 28\nvalue = [20, 8]"] ;
184 -> 185 ;
186 [label="X[3] <= 2.5\ngini = 0.384\nsamples = 27\nvalue = [20, 7]"] ;
185 -> 186 ;
187 [label="X[1568] <= 0.5\ngini = 0.355\nsamples = 26\nvalue = [20, 6]"] ;
186 -> 187 ;
188 [label="X[1242] <= 0.5\ngini = 0.32\nsamples = 25\nvalue = [20, 5]"] ;
187 -> 188 ;
189 [label="X[1282] <= 0.5\ngini = 0.278\nsamples = 24\nvalue = [20, 4]"] ;
188 -> 189 ;
190 [label="X[1392] <= 0.5\ngini = 0.227\nsamples = 23\nvalue = [20, 3]"] ;
189 -> 190 ;
191 [label="X[1569] <= 0.5\ngini = 0.165\nsamples = 22\nvalue = [20, 2]"] ;
190 -> 191 ;
192 [label="X[615] <= 0.5\ngini = 0.091\nsamples = 21\nvalue = [20, 1]"] ;
191 -> 192 ;
193 [label="gini = 0.0\nsamples = 20\nvalue = [20, 0]"] ;
192 -> 193 ;
194 [label="gini = 0.0\nsamples = 1\nvalue = [0, 1]"] ;
192 -> 194 ;
195 [label="gini = 0.0\nsamples = 1\nvalue = [0, 1]"] ;
191 -> 195 ;
196 [label="gini = 0.0\nsamples = 1\nvalue = [0, 1]"] ;
190 -> 196 ;
197 [label="gini = 0.0\nsamples = 1\nvalue = [0, 1]"] ;
189 -> 197 ;
198 [label="gini = 0.0\nsamples = 1\nvalue = [0, 1]"] ;
188 -> 198 ;
199 [label="gini = 0.0\nsamples = 1\nvalue = [0, 1]"] ;
187 -> 199 ;
200 [label="gini = 0.0\nsamples = 1\nvalue = [0, 1]"] ;
186 -> 200 ;
201 [label="gini = 0.0\nsamples = 1\nvalue = [0, 1]"] ;
185 -> 201 ;
202 [label="gini = 0.0\nsamples = 1\nvalue = [0, 1]"] ;
184 -> 202 ;
203 [label="X[1294] <= 0.5\ngini = 0.463\nsamples = 22\nvalue = [8, 14]"] ;
183 -> 203 ;
204 [label="X[3] <= 0.5\ngini = 0.388\nsamples = 19\nvalue = [5, 14]"] ;
203 -> 204 ;
205 [label="gini = 0.0\nsamples = 6\nvalue = [0, 6]"] ;
204 -> 205 ;
206 [label="X[0] <= 62.5\ngini = 0.473\nsamples = 13\nvalue = [5, 8]"] ;
204 -> 206 ;
207 [label="gini = 0.0\nsamples = 2\nvalue = [2, 0]"] ;
206 -> 207 ;
208 [label="X[5] <= 15.175\ngini = 0.397\nsamples = 11\nvalue = [3, 8]"] ;
206 -> 208 ;
209 [label="X[2] <= 14.5\ngini = 0.444\nsamples = 3\nvalue = [2, 1]"] ;
208 -> 209 ;
210 [label="gini = 0.0\nsamples = 1\nvalue = [0, 1]"] ;
209 -> 210 ;
211 [label="gini = 0.0\nsamples = 2\nvalue = [2, 0]"] ;
209 -> 211 ;
212 [label="X[0] <= 589.0\ngini = 0.219\nsamples = 8\nvalue = [1, 7]"] ;
208 -> 212 ;
213 [label="gini = 0.0\nsamples = 7\nvalue = [0, 7]"] ;
212 -> 213 ;
214 [label="gini = 0.0\nsamples = 1\nvalue = [1, 0]"] ;
212 -> 214 ;
215 [label="gini = 0.0\nsamples = 3\nvalue = [3, 0]"] ;
203 -> 215 ;
216 [label="X[1228] <= 0.5\ngini = 0.091\nsamples = 21\nvalue = [20, 1]"] ;
162 -> 216 ;
217 [label="gini = 0.0\nsamples = 20\nvalue = [20, 0]"] ;
216 -> 217 ;
218 [label="gini = 0.0\nsamples = 1\nvalue = [0, 1]"] ;
216 -> 218 ;
}